Language model created by QuickLM on Mon Nov  2 10:33:56 EST 2015
Copyright (c) 1996-2010 Carnegie Mellon University and Alexander I. Rudnicky

The model is in standard ARPA format, designed by Doug Paul while he was at MITRE.

The code that was used to produce this language model is available in Open Source.
Please visit http://www.speech.cs.cmu.edu/tools/ for more information

The (fixed) discount mass is 0.5. The backoffs are computed using the ratio method.
This model based on a corpus of 119 sentences and 112 words

\data\
ngram 1=112
ngram 2=220
ngram 3=110

\1-grams:
-0.7782 </s> -0.3010
-0.7782 <s> -0.2218
-2.8537 ALONG -0.2218
-2.8537 ARE -0.2218
-2.8537 AROUND -0.2218
-2.8537 AS -0.2218
-2.8537 AT -0.2218
-2.8537 AWAY -0.2218
-2.8537 BAKING -0.2218
-2.8537 BE -0.2218
-2.8537 BEHIND -0.2218
-2.8537 BETWEEN -0.2218
-2.8537 BRING -0.2218
-2.8537 CAN -0.2218
-2.5527 CARRY -0.2218
-2.8537 CHECK -0.2218
-2.5527 CLOSE -0.2218
-2.8537 CLOSELY -0.2218
-2.8537 COME -0.2218
-2.8537 CONTROL -0.2218
-2.8537 COULD -0.2218
-2.8537 CUTTING -0.2218
-2.8537 DELIVER -0.2218
-2.8537 DISCONNECT -0.2218
-2.5527 DO -0.2218
-2.5527 DOWN -0.2218
-2.8537 DRIVE -0.2218
-2.8537 DROP -0.2218
-2.8537 ENTER -0.2218
-2.8537 EVERYWHERE -0.2218
-2.8537 FACING -0.2218
-2.8537 FETCH -0.2218
-2.8537 FIND -0.2218
-2.5527 FOLLOW -0.2218
-2.8537 FOR -0.2218
-2.8537 FROM -0.2218
-2.8537 GET -0.2218
-2.8537 GIVE -0.2218
-2.8537 GO -0.2218
-2.8537 GOES -0.2218
-2.8537 GRAB -0.2218
-2.8537 HANG -0.2218
-2.8537 HAS -0.2218
-2.8537 HE -0.2218
-2.8537 HERE -0.2218
-2.8537 I -0.2218
-2.8537 IF -0.2218
-2.8537 IN -0.2218
-2.8537 INSIDE -0.2218
-2.8537 INTO -0.2218
-2.8537 IS -0.2218
-2.8537 IT -0.2218
-2.8537 JUMP -0.2218
-2.8537 KEEP -0.2218
-2.8537 LET -0.2218
-2.8537 LIKE -0.2218
-2.8537 LISTEN -0.2218
-2.8537 LIVING -0.2218
-2.8537 LOOK -0.2218
-2.8537 LOST -0.2218
-2.8537 LOWER -0.2218
-2.8537 ME -0.2218
-2.8537 MOVE -0.2218
-2.8537 MY -0.2218
-2.8537 NEAR -0.2218
-2.5527 NEED -0.2218
-2.8537 NEEDS -0.2218
-2.8537 OF -0.2218
-2.8537 OFF -0.2218
-2.8537 ON -0.2218
-2.8537 ONTO -0.2218
-2.8537 OPEN -0.2218
-2.8537 OUT -0.2218
-2.5527 OVER -0.2218
-2.8537 PASS -0.2218
-2.8537 PICK -0.2218
-2.8537 PLACE -0.2218
-2.8537 PLEASE -0.2218
-2.5527 PUT -0.2218
-2.8537 READ -0.2218
-2.8537 RELEASE -0.2218
-2.8537 REMOVE -0.2218
-2.8537 RESTART -0.2218
-2.8537 SEARCH -0.2218
-2.8537 SEE -0.2218
-2.8537 SHOULD -0.2218
-2.8537 SLEEP -0.2218
-2.8537 START -0.2218
-2.8537 STOP -0.2218
-2.8537 STRAIGHT -0.2218
-2.8537 SWITCH -0.2218
-2.5527 TAKE -0.2218
-2.8537 THANK -0.2218
-2.8537 THEM -0.2218
-2.8537 THERE -0.2218
-2.8537 THEY -0.2218
-2.8537 THINK -0.2218
-2.8537 TO -0.2218
-2.8537 TOWARDS -0.2218
-2.8537 TURN -0.2218
-2.8537 UNDER -0.2218
-2.8537 UP -0.2218
-2.8537 US -0.2218
-2.8537 USE -0.2218
-2.8537 WANT -0.2218
-2.8537 WATCH -0.2218
-2.8537 WATER -0.2218
-2.8537 WE -0.2218
-2.8537 WITH -0.2218
-2.8537 WOULD -0.2218
-2.8537 YOU -0.2218
-2.8537 YOUR -0.2218

\2-grams:
-2.3766 <s> ALONG 0.0000
-2.3766 <s> ARE 0.0000
-2.3766 <s> AROUND 0.0000
-2.3766 <s> AS 0.0000
-2.3766 <s> AT 0.0000
-2.3766 <s> AWAY 0.0000
-2.3766 <s> BAKING 0.0000
-2.3766 <s> BE 0.0000
-2.3766 <s> BEHIND 0.0000
-2.3766 <s> BETWEEN 0.0000
-2.3766 <s> BRING 0.0000
-2.3766 <s> CAN 0.0000
-2.0755 <s> CARRY 0.0000
-2.3766 <s> CHECK 0.0000
-2.0755 <s> CLOSE 0.0000
-2.3766 <s> CLOSELY 0.0000
-2.3766 <s> COME 0.0000
-2.3766 <s> CONTROL 0.0000
-2.3766 <s> COULD 0.0000
-2.3766 <s> CUTTING 0.0000
-2.3766 <s> DELIVER 0.0000
-2.3766 <s> DISCONNECT 0.0000
-2.0755 <s> DO 0.0000
-2.0755 <s> DOWN 0.0000
-2.3766 <s> DRIVE 0.0000
-2.3766 <s> DROP 0.0000
-2.3766 <s> ENTER 0.0000
-2.3766 <s> EVERYWHERE 0.0000
-2.3766 <s> FACING 0.0000
-2.3766 <s> FETCH 0.0000
-2.3766 <s> FIND 0.0000
-2.0755 <s> FOLLOW 0.0000
-2.3766 <s> FOR 0.0000
-2.3766 <s> FROM 0.0000
-2.3766 <s> GET 0.0000
-2.3766 <s> GIVE 0.0000
-2.3766 <s> GO 0.0000
-2.3766 <s> GOES 0.0000
-2.3766 <s> GRAB 0.0000
-2.3766 <s> HANG 0.0000
-2.3766 <s> HAS 0.0000
-2.3766 <s> HE 0.0000
-2.3766 <s> HERE 0.0000
-2.3766 <s> I 0.0000
-2.3766 <s> IF 0.0000
-2.3766 <s> IN 0.0000
-2.3766 <s> INSIDE 0.0000
-2.3766 <s> INTO 0.0000
-2.3766 <s> IS 0.0000
-2.3766 <s> IT 0.0000
-2.3766 <s> JUMP 0.0000
-2.3766 <s> KEEP 0.0000
-2.3766 <s> LET 0.0000
-2.3766 <s> LIKE 0.0000
-2.3766 <s> LISTEN 0.0000
-2.3766 <s> LIVING 0.0000
-2.3766 <s> LOOK 0.0000
-2.3766 <s> LOST 0.0000
-2.3766 <s> LOWER 0.0000
-2.3766 <s> ME 0.0000
-2.3766 <s> MOVE 0.0000
-2.3766 <s> MY 0.0000
-2.3766 <s> NEAR 0.0000
-2.0755 <s> NEED 0.0000
-2.3766 <s> NEEDS 0.0000
-2.3766 <s> OF 0.0000
-2.3766 <s> OFF 0.0000
-2.3766 <s> ON 0.0000
-2.3766 <s> ONTO 0.0000
-2.3766 <s> OPEN 0.0000
-2.3766 <s> OUT 0.0000
-2.0755 <s> OVER 0.0000
-2.3766 <s> PASS 0.0000
-2.3766 <s> PICK 0.0000
-2.3766 <s> PLACE 0.0000
-2.3766 <s> PLEASE 0.0000
-2.0755 <s> PUT 0.0000
-2.3766 <s> READ 0.0000
-2.3766 <s> RELEASE 0.0000
-2.3766 <s> REMOVE 0.0000
-2.3766 <s> RESTART 0.0000
-2.3766 <s> SEARCH 0.0000
-2.3766 <s> SEE 0.0000
-2.3766 <s> SHOULD 0.0000
-2.3766 <s> SLEEP 0.0000
-2.3766 <s> START 0.0000
-2.3766 <s> STOP 0.0000
-2.3766 <s> STRAIGHT 0.0000
-2.3766 <s> SWITCH 0.0000
-2.0755 <s> TAKE 0.0000
-2.3766 <s> THANK 0.0000
-2.3766 <s> THEM 0.0000
-2.3766 <s> THERE 0.0000
-2.3766 <s> THEY 0.0000
-2.3766 <s> THINK 0.0000
-2.3766 <s> TO 0.0000
-2.3766 <s> TOWARDS 0.0000
-2.3766 <s> TURN 0.0000
-2.3766 <s> UNDER 0.0000
-2.3766 <s> UP 0.0000
-2.3766 <s> US 0.0000
-2.3766 <s> USE 0.0000
-2.3766 <s> WANT 0.0000
-2.3766 <s> WATCH 0.0000
-2.3766 <s> WATER 0.0000
-2.3766 <s> WE 0.0000
-2.3766 <s> WITH 0.0000
-2.3766 <s> WOULD 0.0000
-2.3766 <s> YOU 0.0000
-2.3766 <s> YOUR 0.0000
-0.3010 ALONG </s> -0.3010
-0.3010 ARE </s> -0.3010
-0.3010 AROUND </s> -0.3010
-0.3010 AS </s> -0.3010
-0.3010 AT </s> -0.3010
-0.3010 AWAY </s> -0.3010
-0.3010 BAKING </s> -0.3010
-0.3010 BE </s> -0.3010
-0.3010 BEHIND </s> -0.3010
-0.3010 BETWEEN </s> -0.3010
-0.3010 BRING </s> -0.3010
-0.3010 CAN </s> -0.3010
-0.3010 CARRY </s> -0.3010
-0.3010 CHECK </s> -0.3010
-0.3010 CLOSE </s> -0.3010
-0.3010 CLOSELY </s> -0.3010
-0.3010 COME </s> -0.3010
-0.3010 CONTROL </s> -0.3010
-0.3010 COULD </s> -0.3010
-0.3010 CUTTING </s> -0.3010
-0.3010 DELIVER </s> -0.3010
-0.3010 DISCONNECT </s> -0.3010
-0.3010 DO </s> -0.3010
-0.3010 DOWN </s> -0.3010
-0.3010 DRIVE </s> -0.3010
-0.3010 DROP </s> -0.3010
-0.3010 ENTER </s> -0.3010
-0.3010 EVERYWHERE </s> -0.3010
-0.3010 FACING </s> -0.3010
-0.3010 FETCH </s> -0.3010
-0.3010 FIND </s> -0.3010
-0.3010 FOLLOW </s> -0.3010
-0.3010 FOR </s> -0.3010
-0.3010 FROM </s> -0.3010
-0.3010 GET </s> -0.3010
-0.3010 GIVE </s> -0.3010
-0.3010 GO </s> -0.3010
-0.3010 GOES </s> -0.3010
-0.3010 GRAB </s> -0.3010
-0.3010 HANG </s> -0.3010
-0.3010 HAS </s> -0.3010
-0.3010 HE </s> -0.3010
-0.3010 HERE </s> -0.3010
-0.3010 I </s> -0.3010
-0.3010 IF </s> -0.3010
-0.3010 IN </s> -0.3010
-0.3010 INSIDE </s> -0.3010
-0.3010 INTO </s> -0.3010
-0.3010 IS </s> -0.3010
-0.3010 IT </s> -0.3010
-0.3010 JUMP </s> -0.3010
-0.3010 KEEP </s> -0.3010
-0.3010 LET </s> -0.3010
-0.3010 LIKE </s> -0.3010
-0.3010 LISTEN </s> -0.3010
-0.3010 LIVING </s> -0.3010
-0.3010 LOOK </s> -0.3010
-0.3010 LOST </s> -0.3010
-0.3010 LOWER </s> -0.3010
-0.3010 ME </s> -0.3010
-0.3010 MOVE </s> -0.3010
-0.3010 MY </s> -0.3010
-0.3010 NEAR </s> -0.3010
-0.3010 NEED </s> -0.3010
-0.3010 NEEDS </s> -0.3010
-0.3010 OF </s> -0.3010
-0.3010 OFF </s> -0.3010
-0.3010 ON </s> -0.3010
-0.3010 ONTO </s> -0.3010
-0.3010 OPEN </s> -0.3010
-0.3010 OUT </s> -0.3010
-0.3010 OVER </s> -0.3010
-0.3010 PASS </s> -0.3010
-0.3010 PICK </s> -0.3010
-0.3010 PLACE </s> -0.3010
-0.3010 PLEASE </s> -0.3010
-0.3010 PUT </s> -0.3010
-0.3010 READ </s> -0.3010
-0.3010 RELEASE </s> -0.3010
-0.3010 REMOVE </s> -0.3010
-0.3010 RESTART </s> -0.3010
-0.3010 SEARCH </s> -0.3010
-0.3010 SEE </s> -0.3010
-0.3010 SHOULD </s> -0.3010
-0.3010 SLEEP </s> -0.3010
-0.3010 START </s> -0.3010
-0.3010 STOP </s> -0.3010
-0.3010 STRAIGHT </s> -0.3010
-0.3010 SWITCH </s> -0.3010
-0.3010 TAKE </s> -0.3010
-0.3010 THANK </s> -0.3010
-0.3010 THEM </s> -0.3010
-0.3010 THERE </s> -0.3010
-0.3010 THEY </s> -0.3010
-0.3010 THINK </s> -0.3010
-0.3010 TO </s> -0.3010
-0.3010 TOWARDS </s> -0.3010
-0.3010 TURN </s> -0.3010
-0.3010 UNDER </s> -0.3010
-0.3010 UP </s> -0.3010
-0.3010 US </s> -0.3010
-0.3010 USE </s> -0.3010
-0.3010 WANT </s> -0.3010
-0.3010 WATCH </s> -0.3010
-0.3010 WATER </s> -0.3010
-0.3010 WE </s> -0.3010
-0.3010 WITH </s> -0.3010
-0.3010 WOULD </s> -0.3010
-0.3010 YOU </s> -0.3010
-0.3010 YOUR </s> -0.3010

\3-grams:
-0.3010 <s> ALONG </s>
-0.3010 <s> ARE </s>
-0.3010 <s> AROUND </s>
-0.3010 <s> AS </s>
-0.3010 <s> AT </s>
-0.3010 <s> AWAY </s>
-0.3010 <s> BAKING </s>
-0.3010 <s> BE </s>
-0.3010 <s> BEHIND </s>
-0.3010 <s> BETWEEN </s>
-0.3010 <s> BRING </s>
-0.3010 <s> CAN </s>
-0.3010 <s> CARRY </s>
-0.3010 <s> CHECK </s>
-0.3010 <s> CLOSE </s>
-0.3010 <s> CLOSELY </s>
-0.3010 <s> COME </s>
-0.3010 <s> CONTROL </s>
-0.3010 <s> COULD </s>
-0.3010 <s> CUTTING </s>
-0.3010 <s> DELIVER </s>
-0.3010 <s> DISCONNECT </s>
-0.3010 <s> DO </s>
-0.3010 <s> DOWN </s>
-0.3010 <s> DRIVE </s>
-0.3010 <s> DROP </s>
-0.3010 <s> ENTER </s>
-0.3010 <s> EVERYWHERE </s>
-0.3010 <s> FACING </s>
-0.3010 <s> FETCH </s>
-0.3010 <s> FIND </s>
-0.3010 <s> FOLLOW </s>
-0.3010 <s> FOR </s>
-0.3010 <s> FROM </s>
-0.3010 <s> GET </s>
-0.3010 <s> GIVE </s>
-0.3010 <s> GO </s>
-0.3010 <s> GOES </s>
-0.3010 <s> GRAB </s>
-0.3010 <s> HANG </s>
-0.3010 <s> HAS </s>
-0.3010 <s> HE </s>
-0.3010 <s> HERE </s>
-0.3010 <s> I </s>
-0.3010 <s> IF </s>
-0.3010 <s> IN </s>
-0.3010 <s> INSIDE </s>
-0.3010 <s> INTO </s>
-0.3010 <s> IS </s>
-0.3010 <s> IT </s>
-0.3010 <s> JUMP </s>
-0.3010 <s> KEEP </s>
-0.3010 <s> LET </s>
-0.3010 <s> LIKE </s>
-0.3010 <s> LISTEN </s>
-0.3010 <s> LIVING </s>
-0.3010 <s> LOOK </s>
-0.3010 <s> LOST </s>
-0.3010 <s> LOWER </s>
-0.3010 <s> ME </s>
-0.3010 <s> MOVE </s>
-0.3010 <s> MY </s>
-0.3010 <s> NEAR </s>
-0.3010 <s> NEED </s>
-0.3010 <s> NEEDS </s>
-0.3010 <s> OF </s>
-0.3010 <s> OFF </s>
-0.3010 <s> ON </s>
-0.3010 <s> ONTO </s>
-0.3010 <s> OPEN </s>
-0.3010 <s> OUT </s>
-0.3010 <s> OVER </s>
-0.3010 <s> PASS </s>
-0.3010 <s> PICK </s>
-0.3010 <s> PLACE </s>
-0.3010 <s> PLEASE </s>
-0.3010 <s> PUT </s>
-0.3010 <s> READ </s>
-0.3010 <s> RELEASE </s>
-0.3010 <s> REMOVE </s>
-0.3010 <s> RESTART </s>
-0.3010 <s> SEARCH </s>
-0.3010 <s> SEE </s>
-0.3010 <s> SHOULD </s>
-0.3010 <s> SLEEP </s>
-0.3010 <s> START </s>
-0.3010 <s> STOP </s>
-0.3010 <s> STRAIGHT </s>
-0.3010 <s> SWITCH </s>
-0.3010 <s> TAKE </s>
-0.3010 <s> THANK </s>
-0.3010 <s> THEM </s>
-0.3010 <s> THERE </s>
-0.3010 <s> THEY </s>
-0.3010 <s> THINK </s>
-0.3010 <s> TO </s>
-0.3010 <s> TOWARDS </s>
-0.3010 <s> TURN </s>
-0.3010 <s> UNDER </s>
-0.3010 <s> UP </s>
-0.3010 <s> US </s>
-0.3010 <s> USE </s>
-0.3010 <s> WANT </s>
-0.3010 <s> WATCH </s>
-0.3010 <s> WATER </s>
-0.3010 <s> WE </s>
-0.3010 <s> WITH </s>
-0.3010 <s> WOULD </s>
-0.3010 <s> YOU </s>
-0.3010 <s> YOUR </s>

\end\
